digraph Tree {
node [shape=box, style="filled, rounded", color="black", fontname=helvetica] ;
graph [ranksep=equally, splines=polyline] ;
edge [fontname=helvetica] ;
0 [label="node #0\ndeaths <= 3.5\ngini = 0.4927\nsamples = 7177\nvalue = [3154, 4023]\nclass = win", fillcolor="#399de537"] ;
1 [label="node #1\nassists <= 5.5\ngini = 0.2724\nsamples = 2883\nvalue = [469, 2414]\nclass = win", fillcolor="#399de5cd"] ;
0 -> 1 [labeldistance=2.5, labelangle=45, headlabel="True"] ;
2 [label="node #2\ntower_damage <= 2768.0\ngini = 0.4718\nsamples = 459\nvalue = [284, 175]\nclass = lose", fillcolor="#e5813962"] ;
1 -> 2 ;
3 [label="node #3\ndeaths <= 1.5\ngini = 0.3263\nsamples = 341\nvalue = [271, 70]\nclass = lose", fillcolor="#e58139bd"] ;
2 -> 3 ;
4 [label="node #4\nassists <= 3.5\ngini = 0.492\nsamples = 87\nvalue = [38, 49]\nclass = win", fillcolor="#399de539"] ;
3 -> 4 ;
5 [label="node #5\nt_gold_cnt_3 <= 494.5\ngini = 0.4082\nsamples = 42\nvalue = [30, 12]\nclass = lose", fillcolor="#e5813999"] ;
4 -> 5 ;
6 [label="node #6\ngini = 0.095\nsamples = 20\nvalue = [19, 1]\nclass = lose", fillcolor="#e58139f2"] ;
5 -> 6 ;
7 [label="node #7\ngini = 0.5\nsamples = 22\nvalue = [11, 11]\nclass = lose", fillcolor="#e5813900"] ;
5 -> 7 ;
8 [label="node #8\nEscape_0 <= 0.5\ngini = 0.2923\nsamples = 45\nvalue = [8, 37]\nclass = win", fillcolor="#399de5c8"] ;
4 -> 8 ;
9 [label="node #9\ngini = 0.4339\nsamples = 22\nvalue = [7, 15]\nclass = win", fillcolor="#399de588"] ;
8 -> 9 ;
10 [label="node #10\ngini = 0.0832\nsamples = 23\nvalue = [1, 22]\nclass = win", fillcolor="#399de5f3"] ;
8 -> 10 ;
11 [label="node #11\ndeaths <= 2.5\ngini = 0.1517\nsamples = 254\nvalue = [233, 21]\nclass = lose", fillcolor="#e58139e8"] ;
3 -> 11 ;
12 [label="node #12\nt_gold_cnt_15 <= 5662.5\ngini = 0.2593\nsamples = 98\nvalue = [83, 15]\nclass = lose", fillcolor="#e58139d1"] ;
11 -> 12 ;
13 [label="node #13\nt_experience_cnt_5 <= 602.5\ngini = 0.1634\nsamples = 78\nvalue = [71, 7]\nclass = lose", fillcolor="#e58139e6"] ;
12 -> 13 ;
14 [label="node #14\ngini = 0.42\nsamples = 20\nvalue = [14, 6]\nclass = lose", fillcolor="#e5813992"] ;
13 -> 14 ;
15 [label="node #15\nt_lasthits_cnt_15 <= 55.5\ngini = 0.0339\nsamples = 58\nvalue = [57, 1]\nclass = lose", fillcolor="#e58139fb"] ;
13 -> 15 ;
16 [label="node #16\ngini = 0.095\nsamples = 20\nvalue = [19, 1]\nclass = lose", fillcolor="#e58139f2"] ;
15 -> 16 ;
17 [label="node #17\ngini = 0.0\nsamples = 38\nvalue = [38, 0]\nclass = lose", fillcolor="#e58139ff"] ;
15 -> 17 ;
18 [label="node #18\ngini = 0.48\nsamples = 20\nvalue = [12, 8]\nclass = lose", fillcolor="#e5813955"] ;
12 -> 18 ;
19 [label="node #19\ngold_spent <= 5337.5\ngini = 0.074\nsamples = 156\nvalue = [150, 6]\nclass = lose", fillcolor="#e58139f5"] ;
11 -> 19 ;
20 [label="node #20\ngini = 0.2378\nsamples = 29\nvalue = [25, 4]\nclass = lose", fillcolor="#e58139d6"] ;
19 -> 20 ;
21 [label="node #21\nt_experience_cnt_12 <= 4968.0\ngini = 0.031\nsamples = 127\nvalue = [125, 2]\nclass = lose", fillcolor="#e58139fb"] ;
19 -> 21 ;
22 [label="node #22\ngini = 0.0\nsamples = 107\nvalue = [107, 0]\nclass = lose", fillcolor="#e58139ff"] ;
21 -> 22 ;
23 [label="node #23\ngini = 0.18\nsamples = 20\nvalue = [18, 2]\nclass = lose", fillcolor="#e58139e3"] ;
21 -> 23 ;
24 [label="node #24\ndeaths <= 1.5\ngini = 0.1961\nsamples = 118\nvalue = [13, 105]\nclass = win", fillcolor="#399de5df"] ;
2 -> 24 ;
25 [label="node #25\ngini = 0.0\nsamples = 73\nvalue = [0, 73]\nclass = win", fillcolor="#399de5ff"] ;
24 -> 25 ;
26 [label="node #26\nxp_per_min <= 562.5\ngini = 0.4109\nsamples = 45\nvalue = [13, 32]\nclass = win", fillcolor="#399de597"] ;
24 -> 26 ;
27 [label="node #27\ngini = 0.4959\nsamples = 22\nvalue = [12, 10]\nclass = lose", fillcolor="#e581392a"] ;
26 -> 27 ;
28 [label="node #28\ngini = 0.0832\nsamples = 23\nvalue = [1, 22]\nclass = win", fillcolor="#399de5f3"] ;
26 -> 28 ;
29 [label="node #29\nassists <= 8.5\ngini = 0.141\nsamples = 2424\nvalue = [185, 2239]\nclass = win", fillcolor="#399de5ea"] ;
1 -> 29 ;
30 [label="node #30\ndeaths <= 2.5\ngini = 0.3346\nsamples = 452\nvalue = [96, 356]\nclass = win", fillcolor="#399de5ba"] ;
29 -> 30 ;
31 [label="node #31\ngold_per_min <= 420.5\ngini = 0.1861\nsamples = 337\nvalue = [35, 302]\nclass = win", fillcolor="#399de5e1"] ;
30 -> 31 ;
32 [label="node #32\nhero_damage <= 5608.0\ngini = 0.4409\nsamples = 64\nvalue = [21, 43]\nclass = win", fillcolor="#399de582"] ;
31 -> 32 ;
33 [label="node #33\ngini = 0.1454\nsamples = 38\nvalue = [3, 35]\nclass = win", fillcolor="#399de5e9"] ;
32 -> 33 ;
34 [label="node #34\ngini = 0.426\nsamples = 26\nvalue = [18, 8]\nclass = lose", fillcolor="#e581398e"] ;
32 -> 34 ;
35 [label="node #35\ndeaths <= 1.5\ngini = 0.0973\nsamples = 273\nvalue = [14, 259]\nclass = win", fillcolor="#399de5f1"] ;
31 -> 35 ;
36 [label="node #36\nt_gold_cnt_3 <= 457.0\ngini = 0.0112\nsamples = 177\nvalue = [1, 176]\nclass = win", fillcolor="#399de5fe"] ;
35 -> 36 ;
37 [label="node #37\ngini = 0.095\nsamples = 20\nvalue = [1, 19]\nclass = win", fillcolor="#399de5f2"] ;
36 -> 37 ;
38 [label="node #38\ngini = 0.0\nsamples = 157\nvalue = [0, 157]\nclass = win", fillcolor="#399de5ff"] ;
36 -> 38 ;
39 [label="node #39\ntower_damage <= 5760.5\ngini = 0.2342\nsamples = 96\nvalue = [13, 83]\nclass = win", fillcolor="#399de5d7"] ;
35 -> 39 ;
40 [label="node #40\ngold_spent <= 15010.0\ngini = 0.3478\nsamples = 58\nvalue = [13, 45]\nclass = win", fillcolor="#399de5b5"] ;
39 -> 40 ;
41 [label="node #41\ngini = 0.0\nsamples = 30\nvalue = [0, 30]\nclass = win", fillcolor="#399de5ff"] ;
40 -> 41 ;
42 [label="node #42\ngini = 0.4974\nsamples = 28\nvalue = [13, 15]\nclass = win", fillcolor="#399de522"] ;
40 -> 42 ;
43 [label="node #43\ngini = 0.0\nsamples = 38\nvalue = [0, 38]\nclass = win", fillcolor="#399de5ff"] ;
39 -> 43 ;
44 [label="node #44\ntower_damage <= 4698.0\ngini = 0.4981\nsamples = 115\nvalue = [61, 54]\nclass = lose", fillcolor="#e581391d"] ;
30 -> 44 ;
45 [label="node #45\nCarry_1 <= 0.5\ngini = 0.4444\nsamples = 90\nvalue = [60, 30]\nclass = lose", fillcolor="#e581397f"] ;
44 -> 45 ;
46 [label="node #46\ngini = 0.4995\nsamples = 31\nvalue = [15, 16]\nclass = win", fillcolor="#399de510"] ;
45 -> 46 ;
47 [label="node #47\nt_experience_cnt_3 <= 525.0\ngini = 0.362\nsamples = 59\nvalue = [45, 14]\nclass = lose", fillcolor="#e58139b0"] ;
45 -> 47 ;
48 [label="node #48\ngini = 0.2337\nsamples = 37\nvalue = [32, 5]\nclass = lose", fillcolor="#e58139d7"] ;
47 -> 48 ;
49 [label="node #49\ngini = 0.4835\nsamples = 22\nvalue = [13, 9]\nclass = lose", fillcolor="#e581394e"] ;
47 -> 49 ;
50 [label="node #50\ngini = 0.0768\nsamples = 25\nvalue = [1, 24]\nclass = win", fillcolor="#399de5f4"] ;
44 -> 50 ;
51 [label="node #51\ndeaths <= 2.5\ngini = 0.0862\nsamples = 1972\nvalue = [89, 1883]\nclass = win", fillcolor="#399de5f3"] ;
29 -> 51 ;
52 [label="node #52\ntower_damage <= 149.0\ngini = 0.04\nsamples = 1373\nvalue = [28, 1345]\nclass = win", fillcolor="#399de5fa"] ;
51 -> 52 ;
53 [label="node #53\ndeaths <= 1.5\ngini = 0.1519\nsamples = 157\nvalue = [13, 144]\nclass = win", fillcolor="#399de5e8"] ;
52 -> 53 ;
54 [label="node #54\nstuns <= 37.4034\ngini = 0.027\nsamples = 73\nvalue = [1, 72]\nclass = win", fillcolor="#399de5fb"] ;
53 -> 54 ;
55 [label="node #55\ngini = 0.0\nsamples = 53\nvalue = [0, 53]\nclass = win", fillcolor="#399de5ff"] ;
54 -> 55 ;
56 [label="node #56\ngini = 0.095\nsamples = 20\nvalue = [1, 19]\nclass = win", fillcolor="#399de5f2"] ;
54 -> 56 ;
57 [label="node #57\ngold_spent <= 13017.5\ngini = 0.2449\nsamples = 84\nvalue = [12, 72]\nclass = win", fillcolor="#399de5d4"] ;
53 -> 57 ;
58 [label="node #58\ngold_per_min <= 292.5\ngini = 0.1551\nsamples = 59\nvalue = [5, 54]\nclass = win", fillcolor="#399de5e7"] ;
57 -> 58 ;
59 [label="node #59\ngini = 0.3403\nsamples = 23\nvalue = [5, 18]\nclass = win", fillcolor="#399de5b8"] ;
58 -> 59 ;
60 [label="node #60\ngini = 0.0\nsamples = 36\nvalue = [0, 36]\nclass = win", fillcolor="#399de5ff"] ;
58 -> 60 ;
61 [label="node #61\ngini = 0.4032\nsamples = 25\nvalue = [7, 18]\nclass = win", fillcolor="#399de59c"] ;
57 -> 61 ;
62 [label="node #62\nstuns <= 107.306\ngini = 0.0244\nsamples = 1216\nvalue = [15, 1201]\nclass = win", fillcolor="#399de5fc"] ;
52 -> 62 ;
63 [label="node #63\nt_first_kill <= 1548.5\ngini = 0.0215\nsamples = 1196\nvalue = [13, 1183]\nclass = win", fillcolor="#399de5fc"] ;
62 -> 63 ;
64 [label="node #64\nhero_damage <= 25455.5\ngini = 0.0173\nsamples = 1149\nvalue = [10, 1139]\nclass = win", fillcolor="#399de5fd"] ;
63 -> 64 ;
65 [label="node #65\nfirst_blood_time <= 319.5\ngini = 0.0099\nsamples = 1006\nvalue = [5, 1001]\nclass = win", fillcolor="#399de5fe"] ;
64 -> 65 ;
66 [label="node #66\nt_experience_cnt_8 <= 3238.5\ngini = 0.0062\nsamples = 957\nvalue = [3, 954]\nclass = win", fillcolor="#399de5fe"] ;
65 -> 66 ;
67 [label="node #67\nlocalized_name_x_Dark Seer <= 0.5\ngini = 0.0043\nsamples = 935\nvalue = [2, 933]\nclass = win", fillcolor="#399de5fe"] ;
66 -> 67 ;
68 [label="node #68\ncluster_156 <= 0.5\ngini = 0.0022\nsamples = 901\nvalue = [1, 900]\nclass = win", fillcolor="#399de5ff"] ;
67 -> 68 ;
69 [label="node #69\ngini = 0.0\nsamples = 853\nvalue = [0, 853]\nclass = win", fillcolor="#399de5ff"] ;
68 -> 69 ;
70 [label="node #70\ngini = 0.0408\nsamples = 48\nvalue = [1, 47]\nclass = win", fillcolor="#399de5fa"] ;
68 -> 70 ;
71 [label="node #71\ngini = 0.0571\nsamples = 34\nvalue = [1, 33]\nclass = win", fillcolor="#399de5f7"] ;
67 -> 71 ;
72 [label="node #72\ngini = 0.0868\nsamples = 22\nvalue = [1, 21]\nclass = win", fillcolor="#399de5f3"] ;
66 -> 72 ;
73 [label="node #73\ntower_damage <= 752.5\ngini = 0.0783\nsamples = 49\nvalue = [2, 47]\nclass = win", fillcolor="#399de5f4"] ;
65 -> 73 ;
74 [label="node #74\ngini = 0.18\nsamples = 20\nvalue = [2, 18]\nclass = win", fillcolor="#399de5e3"] ;
73 -> 74 ;
75 [label="node #75\ngini = 0.0\nsamples = 29\nvalue = [0, 29]\nclass = win", fillcolor="#399de5ff"] ;
73 -> 75 ;
76 [label="node #76\nt_lasthits_cnt_15 <= 68.5\ngini = 0.0675\nsamples = 143\nvalue = [5, 138]\nclass = win", fillcolor="#399de5f6"] ;
64 -> 76 ;
77 [label="node #77\ngini = 0.2975\nsamples = 22\nvalue = [4, 18]\nclass = win", fillcolor="#399de5c6"] ;
76 -> 77 ;
78 [label="node #78\nt_experience_cnt_12 <= 5276.5\ngini = 0.0164\nsamples = 121\nvalue = [1, 120]\nclass = win", fillcolor="#399de5fd"] ;
76 -> 78 ;
79 [label="node #79\ngini = 0.0\nsamples = 101\nvalue = [0, 101]\nclass = win", fillcolor="#399de5ff"] ;
78 -> 79 ;
80 [label="node #80\ngini = 0.095\nsamples = 20\nvalue = [1, 19]\nclass = win", fillcolor="#399de5f2"] ;
78 -> 80 ;
81 [label="node #81\nt_experience_cnt_10 <= 2868.5\ngini = 0.1195\nsamples = 47\nvalue = [3, 44]\nclass = win", fillcolor="#399de5ee"] ;
63 -> 81 ;
82 [label="node #82\ngini = 0.0\nsamples = 27\nvalue = [0, 27]\nclass = win", fillcolor="#399de5ff"] ;
81 -> 82 ;
83 [label="node #83\ngini = 0.255\nsamples = 20\nvalue = [3, 17]\nclass = win", fillcolor="#399de5d2"] ;
81 -> 83 ;
84 [label="node #84\ngini = 0.18\nsamples = 20\nvalue = [2, 18]\nclass = win", fillcolor="#399de5e3"] ;
62 -> 84 ;
85 [label="node #85\nassists <= 11.5\ngini = 0.1829\nsamples = 599\nvalue = [61, 538]\nclass = win", fillcolor="#399de5e2"] ;
51 -> 85 ;
86 [label="node #86\nxp_per_min <= 620.5\ngini = 0.3525\nsamples = 162\nvalue = [37, 125]\nclass = win", fillcolor="#399de5b4"] ;
85 -> 86 ;
87 [label="node #87\ngold_spent <= 17255.0\ngini = 0.3986\nsamples = 131\nvalue = [36, 95]\nclass = win", fillcolor="#399de59e"] ;
86 -> 87 ;
88 [label="node #88\ntower_damage <= 128.0\ngini = 0.2778\nsamples = 96\nvalue = [16, 80]\nclass = win", fillcolor="#399de5cc"] ;
87 -> 88 ;
89 [label="node #89\ngini = 0.48\nsamples = 20\nvalue = [8, 12]\nclass = win", fillcolor="#399de555"] ;
88 -> 89 ;
90 [label="node #90\nt_gold_cnt_3 <= 571.5\ngini = 0.1884\nsamples = 76\nvalue = [8, 68]\nclass = win", fillcolor="#399de5e1"] ;
88 -> 90 ;
91 [label="node #91\ngold_per_min <= 319.5\ngini = 0.1014\nsamples = 56\nvalue = [3, 53]\nclass = win", fillcolor="#399de5f1"] ;
90 -> 91 ;
92 [label="node #92\ngini = 0.255\nsamples = 20\nvalue = [3, 17]\nclass = win", fillcolor="#399de5d2"] ;
91 -> 92 ;
93 [label="node #93\ngini = 0.0\nsamples = 36\nvalue = [0, 36]\nclass = win", fillcolor="#399de5ff"] ;
91 -> 93 ;
94 [label="node #94\ngini = 0.375\nsamples = 20\nvalue = [5, 15]\nclass = win", fillcolor="#399de5aa"] ;
90 -> 94 ;
95 [label="node #95\ngini = 0.4898\nsamples = 35\nvalue = [20, 15]\nclass = lose", fillcolor="#e5813940"] ;
87 -> 95 ;
96 [label="node #96\ngini = 0.0624\nsamples = 31\nvalue = [1, 30]\nclass = win", fillcolor="#399de5f6"] ;
86 -> 96 ;
97 [label="node #97\nhero_damage <= 31742.5\ngini = 0.1038\nsamples = 437\nvalue = [24, 413]\nclass = win", fillcolor="#399de5f0"] ;
85 -> 97 ;
98 [label="node #98\ncreeps_stacked <= 2.5\ngini = 0.0775\nsamples = 396\nvalue = [16, 380]\nclass = win", fillcolor="#399de5f4"] ;
97 -> 98 ;
99 [label="node #99\ngold_per_min <= 298.5\ngini = 0.0298\nsamples = 264\nvalue = [4, 260]\nclass = win", fillcolor="#399de5fb"] ;
98 -> 99 ;
100 [label="node #100\ngini = 0.1472\nsamples = 25\nvalue = [2, 23]\nclass = win", fillcolor="#399de5e9"] ;
99 -> 100 ;
101 [label="node #101\nassists <= 12.5\ngini = 0.0166\nsamples = 239\nvalue = [2, 237]\nclass = win", fillcolor="#399de5fd"] ;
99 -> 101 ;
102 [label="node #102\ngini = 0.1107\nsamples = 34\nvalue = [2, 32]\nclass = win", fillcolor="#399de5ef"] ;
101 -> 102 ;
103 [label="node #103\ngini = 0.0\nsamples = 205\nvalue = [0, 205]\nclass = win", fillcolor="#399de5ff"] ;
101 -> 103 ;
104 [label="node #104\ngold_spent <= 12310.0\ngini = 0.1653\nsamples = 132\nvalue = [12, 120]\nclass = win", fillcolor="#399de5e6"] ;
98 -> 104 ;
105 [label="node #105\nt_experience_cnt_5 <= 515.0\ngini = 0.0563\nsamples = 69\nvalue = [2, 67]\nclass = win", fillcolor="#399de5f7"] ;
104 -> 105 ;
106 [label="node #106\ngini = 0.18\nsamples = 20\nvalue = [2, 18]\nclass = win", fillcolor="#399de5e3"] ;
105 -> 106 ;
107 [label="node #107\ngini = 0.0\nsamples = 49\nvalue = [0, 49]\nclass = win", fillcolor="#399de5ff"] ;
105 -> 107 ;
108 [label="node #108\ntower_damage <= 1133.5\ngini = 0.2671\nsamples = 63\nvalue = [10, 53]\nclass = win", fillcolor="#399de5cf"] ;
104 -> 108 ;
109 [label="node #109\ngini = 0.3944\nsamples = 37\nvalue = [10, 27]\nclass = win", fillcolor="#399de5a1"] ;
108 -> 109 ;
110 [label="node #110\ngini = 0.0\nsamples = 26\nvalue = [0, 26]\nclass = win", fillcolor="#399de5ff"] ;
108 -> 110 ;
111 [label="node #111\ntower_damage <= 5949.0\ngini = 0.3141\nsamples = 41\nvalue = [8, 33]\nclass = win", fillcolor="#399de5c1"] ;
97 -> 111 ;
112 [label="node #112\ngini = 0.48\nsamples = 20\nvalue = [8, 12]\nclass = win", fillcolor="#399de555"] ;
111 -> 112 ;
113 [label="node #113\ngini = 0.0\nsamples = 21\nvalue = [0, 21]\nclass = win", fillcolor="#399de5ff"] ;
111 -> 113 ;
114 [label="node #114\nassists <= 11.5\ngini = 0.4686\nsamples = 4294\nvalue = [2685, 1609]\nclass = lose", fillcolor="#e5813966"] ;
0 -> 114 [labeldistance=2.5, labelangle=-45, headlabel="False"] ;
115 [label="node #115\ntower_damage <= 4451.5\ngini = 0.2443\nsamples = 2352\nvalue = [2017, 335]\nclass = lose", fillcolor="#e58139d5"] ;
114 -> 115 ;
116 [label="node #116\nassists <= 7.5\ngini = 0.1939\nsamples = 2206\nvalue = [1966, 240]\nclass = lose", fillcolor="#e58139e0"] ;
115 -> 116 ;
117 [label="node #117\nxp_per_min <= 650.5\ngini = 0.0694\nsamples = 1334\nvalue = [1286, 48]\nclass = lose", fillcolor="#e58139f5"] ;
116 -> 117 ;
118 [label="node #118\nlocalized_name_x_Crystal Maiden <= 0.5\ngini = 0.0608\nsamples = 1306\nvalue = [1265, 41]\nclass = lose", fillcolor="#e58139f7"] ;
117 -> 118 ;
119 [label="node #119\ntower_damage <= 2083.5\ngini = 0.0535\nsamples = 1272\nvalue = [1237, 35]\nclass = lose", fillcolor="#e58139f8"] ;
118 -> 119 ;
120 [label="node #120\nassists <= 6.5\ngini = 0.0403\nsamples = 1166\nvalue = [1142, 24]\nclass = lose", fillcolor="#e58139fa"] ;
119 -> 120 ;
121 [label="node #121\nt_experience_cnt_15 <= 1908.0\ngini = 0.022\nsamples = 989\nvalue = [978, 11]\nclass = lose", fillcolor="#e58139fc"] ;
120 -> 121 ;
122 [label="node #122\ngini = 0.18\nsamples = 20\nvalue = [18, 2]\nclass = lose", fillcolor="#e58139e3"] ;
121 -> 122 ;
123 [label="node #123\ntower_damage <= 630.5\ngini = 0.0184\nsamples = 969\nvalue = [960, 9]\nclass = lose", fillcolor="#e58139fd"] ;
121 -> 123 ;
124 [label="node #124\nt_experience_cnt_3 <= 31.5\ngini = 0.0054\nsamples = 738\nvalue = [736, 2]\nclass = lose", fillcolor="#e58139fe"] ;
123 -> 124 ;
125 [label="node #125\ngini = 0.095\nsamples = 20\nvalue = [19, 1]\nclass = lose", fillcolor="#e58139f2"] ;
124 -> 125 ;
126 [label="node #126\nt_obs_cnt_20 <= 7.5\ngini = 0.0028\nsamples = 718\nvalue = [717, 1]\nclass = lose", fillcolor="#e58139ff"] ;
124 -> 126 ;
127 [label="node #127\ngini = 0.0\nsamples = 693\nvalue = [693, 0]\nclass = lose", fillcolor="#e58139ff"] ;
126 -> 127 ;
128 [label="node #128\ngini = 0.0768\nsamples = 25\nvalue = [24, 1]\nclass = lose", fillcolor="#e58139f4"] ;
126 -> 128 ;
129 [label="node #129\nassists <= 5.5\ngini = 0.0588\nsamples = 231\nvalue = [224, 7]\nclass = lose", fillcolor="#e58139f7"] ;
123 -> 129 ;
130 [label="node #130\nstuns <= 31.2094\ngini = 0.0316\nsamples = 187\nvalue = [184, 3]\nclass = lose", fillcolor="#e58139fb"] ;
129 -> 130 ;
131 [label="node #131\ngini = 0.0119\nsamples = 167\nvalue = [166, 1]\nclass = lose", fillcolor="#e58139fd"] ;
130 -> 131 ;
132 [label="node #132\ngini = 0.18\nsamples = 20\nvalue = [18, 2]\nclass = lose", fillcolor="#e58139e3"] ;
130 -> 132 ;
133 [label="node #133\nt_experience_cnt_5 <= 1051.0\ngini = 0.1653\nsamples = 44\nvalue = [40, 4]\nclass = lose", fillcolor="#e58139e6"] ;
129 -> 133 ;
134 [label="node #134\ngini = 0.32\nsamples = 20\nvalue = [16, 4]\nclass = lose", fillcolor="#e58139bf"] ;
133 -> 134 ;
135 [label="node #135\ngini = 0.0\nsamples = 24\nvalue = [24, 0]\nclass = lose", fillcolor="#e58139ff"] ;
133 -> 135 ;
136 [label="node #136\ngold_per_min <= 259.5\ngini = 0.1361\nsamples = 177\nvalue = [164, 13]\nclass = lose", fillcolor="#e58139eb"] ;
120 -> 136 ;
137 [label="node #137\ngini = 0.0\nsamples = 54\nvalue = [54, 0]\nclass = lose", fillcolor="#e58139ff"] ;
136 -> 137 ;
138 [label="node #138\nt_lasthits_cnt_10 <= 12.5\ngini = 0.189\nsamples = 123\nvalue = [110, 13]\nclass = lose", fillcolor="#e58139e1"] ;
136 -> 138 ;
139 [label="node #139\ngini = 0.4628\nsamples = 22\nvalue = [14, 8]\nclass = lose", fillcolor="#e581396d"] ;
138 -> 139 ;
140 [label="node #140\nt_gold_cnt_10 <= 3033.0\ngini = 0.0941\nsamples = 101\nvalue = [96, 5]\nclass = lose", fillcolor="#e58139f2"] ;
138 -> 140 ;
141 [label="node #141\ngini = 0.0\nsamples = 55\nvalue = [55, 0]\nclass = lose", fillcolor="#e58139ff"] ;
140 -> 141 ;
142 [label="node #142\nt_experience_cnt_10 <= 3572.5\ngini = 0.1938\nsamples = 46\nvalue = [41, 5]\nclass = lose", fillcolor="#e58139e0"] ;
140 -> 142 ;
143 [label="node #143\ngini = 0.3512\nsamples = 22\nvalue = [17, 5]\nclass = lose", fillcolor="#e58139b4"] ;
142 -> 143 ;
144 [label="node #144\ngini = 0.0\nsamples = 24\nvalue = [24, 0]\nclass = lose", fillcolor="#e58139ff"] ;
142 -> 144 ;
145 [label="node #145\nt_lasthits_cnt_15 <= 77.5\ngini = 0.186\nsamples = 106\nvalue = [95, 11]\nclass = lose", fillcolor="#e58139e1"] ;
119 -> 145 ;
146 [label="node #146\nPusher_1 <= 0.5\ngini = 0.3694\nsamples = 45\nvalue = [34, 11]\nclass = lose", fillcolor="#e58139ac"] ;
145 -> 146 ;
147 [label="node #147\ngini = 0.4959\nsamples = 22\nvalue = [12, 10]\nclass = lose", fillcolor="#e581392a"] ;
146 -> 147 ;
148 [label="node #148\ngini = 0.0832\nsamples = 23\nvalue = [22, 1]\nclass = lose", fillcolor="#e58139f3"] ;
146 -> 148 ;
149 [label="node #149\ngini = 0.0\nsamples = 61\nvalue = [61, 0]\nclass = lose", fillcolor="#e58139ff"] ;
145 -> 149 ;
150 [label="node #150\ngini = 0.2907\nsamples = 34\nvalue = [28, 6]\nclass = lose", fillcolor="#e58139c8"] ;
118 -> 150 ;
151 [label="node #151\ngini = 0.375\nsamples = 28\nvalue = [21, 7]\nclass = lose", fillcolor="#e58139aa"] ;
117 -> 151 ;
152 [label="node #152\ndeaths <= 4.5\ngini = 0.3434\nsamples = 872\nvalue = [680, 192]\nclass = lose", fillcolor="#e58139b7"] ;
116 -> 152 ;
153 [label="node #153\ngold_per_min <= 282.0\ngini = 0.5\nsamples = 154\nvalue = [77, 77]\nclass = lose", fillcolor="#e5813900"] ;
152 -> 153 ;
154 [label="node #154\ngini = 0.2378\nsamples = 29\nvalue = [25, 4]\nclass = lose", fillcolor="#e58139d6"] ;
153 -> 154 ;
155 [label="node #155\nt_lasthits_cnt_15 <= 50.5\ngini = 0.4859\nsamples = 125\nvalue = [52, 73]\nclass = win", fillcolor="#399de549"] ;
153 -> 155 ;
156 [label="node #156\ncreeps_stacked <= 1.0\ngini = 0.2499\nsamples = 41\nvalue = [6, 35]\nclass = win", fillcolor="#399de5d3"] ;
155 -> 156 ;
157 [label="node #157\ngini = 0.0\nsamples = 20\nvalue = [0, 20]\nclass = win", fillcolor="#399de5ff"] ;
156 -> 157 ;
158 [label="node #158\ngini = 0.4082\nsamples = 21\nvalue = [6, 15]\nclass = win", fillcolor="#399de599"] ;
156 -> 158 ;
159 [label="node #159\ngold_per_min <= 551.5\ngini = 0.4955\nsamples = 84\nvalue = [46, 38]\nclass = lose", fillcolor="#e581392c"] ;
155 -> 159 ;
160 [label="node #160\nprimary_attr_x_str <= 0.5\ngini = 0.4612\nsamples = 61\nvalue = [39, 22]\nclass = lose", fillcolor="#e581396f"] ;
159 -> 160 ;
161 [label="node #161\ngini = 0.2975\nsamples = 33\nvalue = [27, 6]\nclass = lose", fillcolor="#e58139c6"] ;
160 -> 161 ;
162 [label="node #162\ngini = 0.4898\nsamples = 28\nvalue = [12, 16]\nclass = win", fillcolor="#399de540"] ;
160 -> 162 ;
163 [label="node #163\ngini = 0.4234\nsamples = 23\nvalue = [7, 16]\nclass = win", fillcolor="#399de58f"] ;
159 -> 163 ;
164 [label="node #164\ntower_damage <= 144.0\ngini = 0.269\nsamples = 718\nvalue = [603, 115]\nclass = lose", fillcolor="#e58139ce"] ;
152 -> 164 ;
165 [label="node #165\ngold_per_min <= 376.0\ngini = 0.142\nsamples = 338\nvalue = [312, 26]\nclass = lose", fillcolor="#e58139ea"] ;
164 -> 165 ;
166 [label="node #166\nhero_damage <= 3487.0\ngini = 0.0994\nsamples = 305\nvalue = [289, 16]\nclass = lose", fillcolor="#e58139f1"] ;
165 -> 166 ;
167 [label="node #167\ngini = 0.42\nsamples = 20\nvalue = [14, 6]\nclass = lose", fillcolor="#e5813992"] ;
166 -> 167 ;
168 [label="node #168\nt_gold_cnt_10 <= 1356.5\ngini = 0.0677\nsamples = 285\nvalue = [275, 10]\nclass = lose", fillcolor="#e58139f6"] ;
166 -> 168 ;
169 [label="node #169\ngold_per_min <= 246.0\ngini = 0.1653\nsamples = 66\nvalue = [60, 6]\nclass = lose", fillcolor="#e58139e6"] ;
168 -> 169 ;
170 [label="node #170\ngini = 0.0\nsamples = 43\nvalue = [43, 0]\nclass = lose", fillcolor="#e58139ff"] ;
169 -> 170 ;
171 [label="node #171\ngini = 0.3856\nsamples = 23\nvalue = [17, 6]\nclass = lose", fillcolor="#e58139a5"] ;
169 -> 171 ;
172 [label="node #172\nt_first_kill <= 199.5\ngini = 0.0359\nsamples = 219\nvalue = [215, 4]\nclass = lose", fillcolor="#e58139fa"] ;
168 -> 172 ;
173 [label="node #173\nt_runes_cnt_12 <= 2.5\ngini = 0.1298\nsamples = 43\nvalue = [40, 3]\nclass = lose", fillcolor="#e58139ec"] ;
172 -> 173 ;
174 [label="node #174\ngini = 0.255\nsamples = 20\nvalue = [17, 3]\nclass = lose", fillcolor="#e58139d2"] ;
173 -> 174 ;
175 [label="node #175\ngini = 0.0\nsamples = 23\nvalue = [23, 0]\nclass = lose", fillcolor="#e58139ff"] ;
173 -> 175 ;
176 [label="node #176\nt_experience_cnt_8 <= 841.0\ngini = 0.0113\nsamples = 176\nvalue = [175, 1]\nclass = lose", fillcolor="#e58139fe"] ;
172 -> 176 ;
177 [label="node #177\ngini = 0.095\nsamples = 20\nvalue = [19, 1]\nclass = lose", fillcolor="#e58139f2"] ;
176 -> 177 ;
178 [label="node #178\ngini = 0.0\nsamples = 156\nvalue = [156, 0]\nclass = lose", fillcolor="#e58139ff"] ;
176 -> 178 ;
179 [label="node #179\ngini = 0.4224\nsamples = 33\nvalue = [23, 10]\nclass = lose", fillcolor="#e5813990"] ;
165 -> 179 ;
180 [label="node #180\nCarry_1 <= 0.5\ngini = 0.3587\nsamples = 380\nvalue = [291, 89]\nclass = lose", fillcolor="#e58139b1"] ;
164 -> 180 ;
181 [label="node #181\ndeaths <= 6.5\ngini = 0.4572\nsamples = 164\nvalue = [106, 58]\nclass = lose", fillcolor="#e5813973"] ;
180 -> 181 ;
182 [label="node #182\nt_lasthits_cnt_5 <= 8.5\ngini = 0.4992\nsamples = 73\nvalue = [35, 38]\nclass = win", fillcolor="#399de514"] ;
181 -> 182 ;
183 [label="node #183\ntower_damage <= 357.5\ngini = 0.4163\nsamples = 44\nvalue = [13, 31]\nclass = win", fillcolor="#399de594"] ;
182 -> 183 ;
184 [label="node #184\ngini = 0.4991\nsamples = 23\nvalue = [11, 12]\nclass = win", fillcolor="#399de515"] ;
183 -> 184 ;
185 [label="node #185\ngini = 0.1723\nsamples = 21\nvalue = [2, 19]\nclass = win", fillcolor="#399de5e4"] ;
183 -> 185 ;
186 [label="node #186\ngini = 0.3662\nsamples = 29\nvalue = [22, 7]\nclass = lose", fillcolor="#e58139ae"] ;
182 -> 186 ;
187 [label="node #187\nt_sen_cnt_25 <= 5.5\ngini = 0.343\nsamples = 91\nvalue = [71, 20]\nclass = lose", fillcolor="#e58139b7"] ;
181 -> 187 ;
188 [label="node #188\ngold_per_min <= 326.5\ngini = 0.2386\nsamples = 65\nvalue = [56, 9]\nclass = lose", fillcolor="#e58139d6"] ;
187 -> 188 ;
189 [label="node #189\ngini = 0.0605\nsamples = 32\nvalue = [31, 1]\nclass = lose", fillcolor="#e58139f7"] ;
188 -> 189 ;
190 [label="node #190\ngini = 0.3673\nsamples = 33\nvalue = [25, 8]\nclass = lose", fillcolor="#e58139ad"] ;
188 -> 190 ;
191 [label="node #191\ngini = 0.4882\nsamples = 26\nvalue = [15, 11]\nclass = lose", fillcolor="#e5813944"] ;
187 -> 191 ;
192 [label="node #192\ntower_damage <= 2360.0\ngini = 0.2458\nsamples = 216\nvalue = [185, 31]\nclass = lose", fillcolor="#e58139d4"] ;
180 -> 192 ;
193 [label="node #193\nt_gold_cnt_3 <= 525.5\ngini = 0.1229\nsamples = 152\nvalue = [142, 10]\nclass = lose", fillcolor="#e58139ed"] ;
192 -> 193 ;
194 [label="node #194\nt_experience_cnt_12 <= 3732.5\ngini = 0.2285\nsamples = 76\nvalue = [66, 10]\nclass = lose", fillcolor="#e58139d8"] ;
193 -> 194 ;
195 [label="node #195\ntower_damage <= 562.0\ngini = 0.0783\nsamples = 49\nvalue = [47, 2]\nclass = lose", fillcolor="#e58139f4"] ;
194 -> 195 ;
196 [label="node #196\ngini = 0.0\nsamples = 29\nvalue = [29, 0]\nclass = lose", fillcolor="#e58139ff"] ;
195 -> 196 ;
197 [label="node #197\ngini = 0.18\nsamples = 20\nvalue = [18, 2]\nclass = lose", fillcolor="#e58139e3"] ;
195 -> 197 ;
198 [label="node #198\ngini = 0.417\nsamples = 27\nvalue = [19, 8]\nclass = lose", fillcolor="#e5813994"] ;
194 -> 198 ;
199 [label="node #199\ngini = 0.0\nsamples = 76\nvalue = [76, 0]\nclass = lose", fillcolor="#e58139ff"] ;
193 -> 199 ;
200 [label="node #200\nprimary_attr_x_agi <= 0.5\ngini = 0.4409\nsamples = 64\nvalue = [43, 21]\nclass = lose", fillcolor="#e5813982"] ;
192 -> 200 ;
201 [label="node #201\ngini = 0.4829\nsamples = 27\nvalue = [11, 16]\nclass = win", fillcolor="#399de550"] ;
200 -> 201 ;
202 [label="node #202\ngini = 0.2337\nsamples = 37\nvalue = [32, 5]\nclass = lose", fillcolor="#e58139d7"] ;
200 -> 202 ;
203 [label="node #203\nxp_per_min <= 537.5\ngini = 0.4546\nsamples = 146\nvalue = [51, 95]\nclass = win", fillcolor="#399de576"] ;
115 -> 203 ;
204 [label="node #204\nt_gold_cnt_3 <= 591.0\ngini = 0.4648\nsamples = 49\nvalue = [31, 18]\nclass = lose", fillcolor="#e581396b"] ;
203 -> 204 ;
205 [label="node #205\ngini = 0.497\nsamples = 26\nvalue = [12, 14]\nclass = win", fillcolor="#399de524"] ;
204 -> 205 ;
206 [label="node #206\ngini = 0.2873\nsamples = 23\nvalue = [19, 4]\nclass = lose", fillcolor="#e58139c9"] ;
204 -> 206 ;
207 [label="node #207\ngold_per_min <= 594.5\ngini = 0.3273\nsamples = 97\nvalue = [20, 77]\nclass = win", fillcolor="#399de5bd"] ;
203 -> 207 ;
208 [label="node #208\ngini = 0.5\nsamples = 22\nvalue = [11, 11]\nclass = lose", fillcolor="#e5813900"] ;
207 -> 208 ;
209 [label="node #209\nhero_damage <= 27310.5\ngini = 0.2112\nsamples = 75\nvalue = [9, 66]\nclass = win", fillcolor="#399de5dc"] ;
207 -> 209 ;
210 [label="node #210\nt_first_kill <= 405.5\ngini = 0.0392\nsamples = 50\nvalue = [1, 49]\nclass = win", fillcolor="#399de5fa"] ;
209 -> 210 ;
211 [label="node #211\ngini = 0.095\nsamples = 20\nvalue = [1, 19]\nclass = win", fillcolor="#399de5f2"] ;
210 -> 211 ;
212 [label="node #212\ngini = 0.0\nsamples = 30\nvalue = [0, 30]\nclass = win", fillcolor="#399de5ff"] ;
210 -> 212 ;
213 [label="node #213\ngini = 0.4352\nsamples = 25\nvalue = [8, 17]\nclass = win", fillcolor="#399de587"] ;
209 -> 213 ;
214 [label="node #214\ndeaths <= 7.5\ngini = 0.4513\nsamples = 1942\nvalue = [668, 1274]\nclass = win", fillcolor="#399de579"] ;
114 -> 214 ;
215 [label="node #215\ngold_per_min <= 250.5\ngini = 0.3736\nsamples = 1404\nvalue = [349, 1055]\nclass = win", fillcolor="#399de5ab"] ;
214 -> 215 ;
216 [label="node #216\nt_gold_cnt_12 <= 1845.0\ngini = 0.3418\nsamples = 64\nvalue = [50, 14]\nclass = lose", fillcolor="#e58139b8"] ;
215 -> 216 ;
217 [label="node #217\ngini = 0.4991\nsamples = 23\nvalue = [12, 11]\nclass = lose", fillcolor="#e5813915"] ;
216 -> 217 ;
218 [label="node #218\ngold_spent <= 7977.5\ngini = 0.1356\nsamples = 41\nvalue = [38, 3]\nclass = lose", fillcolor="#e58139eb"] ;
216 -> 218 ;
219 [label="node #219\ngini = 0.255\nsamples = 20\nvalue = [17, 3]\nclass = lose", fillcolor="#e58139d2"] ;
218 -> 219 ;
220 [label="node #220\ngini = 0.0\nsamples = 21\nvalue = [21, 0]\nclass = lose", fillcolor="#e58139ff"] ;
218 -> 220 ;
221 [label="node #221\nhero_damage <= 14923.5\ngini = 0.3467\nsamples = 1340\nvalue = [299, 1041]\nclass = win", fillcolor="#399de5b6"] ;
215 -> 221 ;
222 [label="node #222\ntower_damage <= 16.5\ngini = 0.2307\nsamples = 774\nvalue = [103, 671]\nclass = win", fillcolor="#399de5d8"] ;
221 -> 222 ;
223 [label="node #223\nt_obs_cnt_30 <= 5.5\ngini = 0.4788\nsamples = 68\nvalue = [27, 41]\nclass = win", fillcolor="#399de557"] ;
222 -> 223 ;
224 [label="node #224\ngini = 0.4967\nsamples = 37\nvalue = [20, 17]\nclass = lose", fillcolor="#e5813926"] ;
223 -> 224 ;
225 [label="node #225\ngini = 0.3496\nsamples = 31\nvalue = [7, 24]\nclass = win", fillcolor="#399de5b5"] ;
223 -> 225 ;
226 [label="node #226\nhero_damage <= 9206.5\ngini = 0.1921\nsamples = 706\nvalue = [76, 630]\nclass = win", fillcolor="#399de5e0"] ;
222 -> 226 ;
227 [label="node #227\ngold_per_min <= 279.5\ngini = 0.0936\nsamples = 386\nvalue = [19, 367]\nclass = win", fillcolor="#399de5f2"] ;
226 -> 227 ;
228 [label="node #228\nt_experience_cnt_15 <= 3284.5\ngini = 0.2941\nsamples = 67\nvalue = [12, 55]\nclass = win", fillcolor="#399de5c7"] ;
227 -> 228 ;
229 [label="node #229\nt_obs_cnt_30 <= 6.5\ngini = 0.1195\nsamples = 47\nvalue = [3, 44]\nclass = win", fillcolor="#399de5ee"] ;
228 -> 229 ;
230 [label="node #230\ngini = 0.255\nsamples = 20\nvalue = [3, 17]\nclass = win", fillcolor="#399de5d2"] ;
229 -> 230 ;
231 [label="node #231\ngini = 0.0\nsamples = 27\nvalue = [0, 27]\nclass = win", fillcolor="#399de5ff"] ;
229 -> 231 ;
232 [label="node #232\ngini = 0.495\nsamples = 20\nvalue = [9, 11]\nclass = win", fillcolor="#399de52e"] ;
228 -> 232 ;
233 [label="node #233\nt_gold_cnt_3 <= 536.0\ngini = 0.0429\nsamples = 319\nvalue = [7, 312]\nclass = win", fillcolor="#399de5f9"] ;
227 -> 233 ;
234 [label="node #234\nt_experience_cnt_12 <= 2727.0\ngini = 0.0265\nsamples = 298\nvalue = [4, 294]\nclass = win", fillcolor="#399de5fc"] ;
233 -> 234 ;
235 [label="node #235\ngini = 0.0\nsamples = 224\nvalue = [0, 224]\nclass = win", fillcolor="#399de5ff"] ;
234 -> 235 ;
236 [label="node #236\ngold_per_min <= 330.0\ngini = 0.1023\nsamples = 74\nvalue = [4, 70]\nclass = win", fillcolor="#399de5f0"] ;
234 -> 236 ;
237 [label="node #237\ngini = 0.32\nsamples = 20\nvalue = [4, 16]\nclass = win", fillcolor="#399de5bf"] ;
236 -> 237 ;
238 [label="node #238\ngini = 0.0\nsamples = 54\nvalue = [0, 54]\nclass = win", fillcolor="#399de5ff"] ;
236 -> 238 ;
239 [label="node #239\ngini = 0.2449\nsamples = 21\nvalue = [3, 18]\nclass = win", fillcolor="#399de5d4"] ;
233 -> 239 ;
240 [label="node #240\nassists <= 15.5\ngini = 0.2928\nsamples = 320\nvalue = [57, 263]\nclass = win", fillcolor="#399de5c8"] ;
226 -> 240 ;
241 [label="node #241\ntower_damage <= 217.0\ngini = 0.4675\nsamples = 102\nvalue = [38, 64]\nclass = win", fillcolor="#399de568"] ;
240 -> 241 ;
242 [label="node #242\ngini = 0.4444\nsamples = 27\nvalue = [18, 9]\nclass = lose", fillcolor="#e581397f"] ;
241 -> 242 ;
243 [label="node #243\ngold_spent <= 12322.5\ngini = 0.3911\nsamples = 75\nvalue = [20, 55]\nclass = win", fillcolor="#399de5a2"] ;
241 -> 243 ;
244 [label="node #244\ngini = 0.0644\nsamples = 30\nvalue = [1, 29]\nclass = win", fillcolor="#399de5f6"] ;
243 -> 244 ;
245 [label="node #245\ngold_per_min <= 425.5\ngini = 0.4879\nsamples = 45\nvalue = [19, 26]\nclass = win", fillcolor="#399de545"] ;
243 -> 245 ;
246 [label="node #246\ngini = 0.4537\nsamples = 23\nvalue = [15, 8]\nclass = lose", fillcolor="#e5813977"] ;
245 -> 246 ;
247 [label="node #247\ngini = 0.2975\nsamples = 22\nvalue = [4, 18]\nclass = win", fillcolor="#399de5c6"] ;
245 -> 247 ;
248 [label="node #248\ngold_per_min <= 290.5\ngini = 0.1591\nsamples = 218\nvalue = [19, 199]\nclass = win", fillcolor="#399de5e7"] ;
240 -> 248 ;
249 [label="node #249\ngini = 0.4132\nsamples = 24\nvalue = [7, 17]\nclass = win", fillcolor="#399de596"] ;
248 -> 249 ;
250 [label="node #250\ngold_spent <= 15232.5\ngini = 0.1161\nsamples = 194\nvalue = [12, 182]\nclass = win", fillcolor="#399de5ee"] ;
248 -> 250 ;
251 [label="node #251\nhero_damage <= 13993.0\ngini = 0.0155\nsamples = 128\nvalue = [1, 127]\nclass = win", fillcolor="#399de5fd"] ;
250 -> 251 ;
252 [label="node #252\ngini = 0.0\nsamples = 108\nvalue = [0, 108]\nclass = win", fillcolor="#399de5ff"] ;
251 -> 252 ;
253 [label="node #253\ngini = 0.095\nsamples = 20\nvalue = [1, 19]\nclass = win", fillcolor="#399de5f2"] ;
251 -> 253 ;
254 [label="node #254\ngold_per_min <= 394.5\ngini = 0.2778\nsamples = 66\nvalue = [11, 55]\nclass = win", fillcolor="#399de5cc"] ;
250 -> 254 ;
255 [label="node #255\ngini = 0.48\nsamples = 20\nvalue = [8, 12]\nclass = win", fillcolor="#399de555"] ;
254 -> 255 ;
256 [label="node #256\nstuns <= 45.8578\ngini = 0.1219\nsamples = 46\nvalue = [3, 43]\nclass = win", fillcolor="#399de5ed"] ;
254 -> 256 ;
257 [label="node #257\ngini = 0.0\nsamples = 26\nvalue = [0, 26]\nclass = win", fillcolor="#399de5ff"] ;
256 -> 257 ;
258 [label="node #258\ngini = 0.255\nsamples = 20\nvalue = [3, 17]\nclass = win", fillcolor="#399de5d2"] ;
256 -> 258 ;
259 [label="node #259\nassists <= 18.5\ngini = 0.4527\nsamples = 566\nvalue = [196, 370]\nclass = win", fillcolor="#399de578"] ;
221 -> 259 ;
260 [label="node #260\ntower_damage <= 2956.0\ngini = 0.4902\nsamples = 386\nvalue = [166, 220]\nclass = win", fillcolor="#399de53f"] ;
259 -> 260 ;
261 [label="node #261\ngold_per_min <= 383.5\ngini = 0.4886\nsamples = 219\nvalue = [126, 93]\nclass = lose", fillcolor="#e5813943"] ;
260 -> 261 ;
262 [label="node #262\ntower_damage <= 150.5\ngini = 0.2825\nsamples = 47\nvalue = [39, 8]\nclass = lose", fillcolor="#e58139cb"] ;
261 -> 262 ;
263 [label="node #263\ngini = 0.0\nsamples = 22\nvalue = [22, 0]\nclass = lose", fillcolor="#e58139ff"] ;
262 -> 263 ;
264 [label="node #264\ngini = 0.4352\nsamples = 25\nvalue = [17, 8]\nclass = lose", fillcolor="#e5813987"] ;
262 -> 264 ;
265 [label="node #265\nt_sen_cnt_8 <= 0.5\ngini = 0.4999\nsamples = 172\nvalue = [87, 85]\nclass = lose", fillcolor="#e5813906"] ;
261 -> 265 ;
266 [label="node #266\nt_first_kill <= 232.0\ngini = 0.4916\nsamples = 147\nvalue = [83, 64]\nclass = lose", fillcolor="#e581393a"] ;
265 -> 266 ;
267 [label="node #267\ngini = 0.4244\nsamples = 36\nvalue = [11, 25]\nclass = win", fillcolor="#399de58f"] ;
266 -> 267 ;
268 [label="node #268\nt_gold_cnt_3 <= 448.5\ngini = 0.4558\nsamples = 111\nvalue = [72, 39]\nclass = lose", fillcolor="#e5813975"] ;
266 -> 268 ;
269 [label="node #269\ngini = 0.4898\nsamples = 28\nvalue = [12, 16]\nclass = win", fillcolor="#399de540"] ;
268 -> 269 ;
270 [label="node #270\nt_first_kill <= 561.0\ngini = 0.4006\nsamples = 83\nvalue = [60, 23]\nclass = lose", fillcolor="#e581399d"] ;
268 -> 270 ;
271 [label="node #271\ngini = 0.2024\nsamples = 35\nvalue = [31, 4]\nclass = lose", fillcolor="#e58139de"] ;
270 -> 271 ;
272 [label="node #272\ngini = 0.4783\nsamples = 48\nvalue = [29, 19]\nclass = lose", fillcolor="#e5813958"] ;
270 -> 272 ;
273 [label="node #273\ngini = 0.2688\nsamples = 25\nvalue = [4, 21]\nclass = win", fillcolor="#399de5ce"] ;
265 -> 273 ;
274 [label="node #274\ndeaths <= 5.5\ngini = 0.3643\nsamples = 167\nvalue = [40, 127]\nclass = win", fillcolor="#399de5af"] ;
260 -> 274 ;
275 [label="node #275\nhero_damage <= 36081.0\ngini = 0.2556\nsamples = 113\nvalue = [17, 96]\nclass = win", fillcolor="#399de5d2"] ;
274 -> 275 ;
276 [label="node #276\nt_lasthits_cnt_10 <= 48.5\ngini = 0.1544\nsamples = 83\nvalue = [7, 76]\nclass = win", fillcolor="#399de5e8"] ;
275 -> 276 ;
277 [label="node #277\nstuns <= 7.3793\ngini = 0.2627\nsamples = 45\nvalue = [7, 38]\nclass = win", fillcolor="#399de5d0"] ;
276 -> 277 ;
278 [label="node #278\ngini = 0.42\nsamples = 20\nvalue = [6, 14]\nclass = win", fillcolor="#399de592"] ;
277 -> 278 ;
279 [label="node #279\ngini = 0.0768\nsamples = 25\nvalue = [1, 24]\nclass = win", fillcolor="#399de5f4"] ;
277 -> 279 ;
280 [label="node #280\ngini = 0.0\nsamples = 38\nvalue = [0, 38]\nclass = win", fillcolor="#399de5ff"] ;
276 -> 280 ;
281 [label="node #281\ngini = 0.4444\nsamples = 30\nvalue = [10, 20]\nclass = win", fillcolor="#399de57f"] ;
275 -> 281 ;
282 [label="node #282\nt_gold_cnt_5 <= 1316.5\ngini = 0.489\nsamples = 54\nvalue = [23, 31]\nclass = win", fillcolor="#399de542"] ;
274 -> 282 ;
283 [label="node #283\ngini = 0.3967\nsamples = 33\nvalue = [9, 24]\nclass = win", fillcolor="#399de59f"] ;
282 -> 283 ;
284 [label="node #284\ngini = 0.4444\nsamples = 21\nvalue = [14, 7]\nclass = lose", fillcolor="#e581397f"] ;
282 -> 284 ;
285 [label="node #285\nxp_per_min <= 438.5\ngini = 0.2778\nsamples = 180\nvalue = [30, 150]\nclass = win", fillcolor="#399de5cc"] ;
259 -> 285 ;
286 [label="node #286\nDurable_0 <= 0.5\ngini = 0.4486\nsamples = 53\nvalue = [18, 35]\nclass = win", fillcolor="#399de57c"] ;
285 -> 286 ;
287 [label="node #287\ngini = 0.2268\nsamples = 23\nvalue = [3, 20]\nclass = win", fillcolor="#399de5d9"] ;
286 -> 287 ;
288 [label="node #288\ngini = 0.5\nsamples = 30\nvalue = [15, 15]\nclass = lose", fillcolor="#e5813900"] ;
286 -> 288 ;
289 [label="node #289\nstuns <= 54.1166\ngini = 0.1711\nsamples = 127\nvalue = [12, 115]\nclass = win", fillcolor="#399de5e4"] ;
285 -> 289 ;
290 [label="node #290\nprimary_attr_x_agi <= 0.5\ngini = 0.0482\nsamples = 81\nvalue = [2, 79]\nclass = win", fillcolor="#399de5f9"] ;
289 -> 290 ;
291 [label="node #291\ngini = 0.0\nsamples = 59\nvalue = [0, 59]\nclass = win", fillcolor="#399de5ff"] ;
290 -> 291 ;
292 [label="node #292\ngini = 0.1653\nsamples = 22\nvalue = [2, 20]\nclass = win", fillcolor="#399de5e6"] ;
290 -> 292 ;
293 [label="node #293\ncluster_224 <= 0.5\ngini = 0.3403\nsamples = 46\nvalue = [10, 36]\nclass = win", fillcolor="#399de5b8"] ;
289 -> 293 ;
294 [label="node #294\ngini = 0.1528\nsamples = 24\nvalue = [2, 22]\nclass = win", fillcolor="#399de5e8"] ;
293 -> 294 ;
295 [label="node #295\ngini = 0.4628\nsamples = 22\nvalue = [8, 14]\nclass = win", fillcolor="#399de56d"] ;
293 -> 295 ;
296 [label="node #296\ngold_per_min <= 273.5\ngini = 0.4827\nsamples = 538\nvalue = [319, 219]\nclass = lose", fillcolor="#e5813950"] ;
214 -> 296 ;
297 [label="node #297\nt_gold_cnt_15 <= 2141.0\ngini = 0.236\nsamples = 139\nvalue = [120, 19]\nclass = lose", fillcolor="#e58139d7"] ;
296 -> 297 ;
298 [label="node #298\ngini = 0.4717\nsamples = 21\nvalue = [13, 8]\nclass = lose", fillcolor="#e5813962"] ;
297 -> 298 ;
299 [label="node #299\nt_experience_cnt_8 <= 1293.0\ngini = 0.1691\nsamples = 118\nvalue = [107, 11]\nclass = lose", fillcolor="#e58139e5"] ;
297 -> 299 ;
300 [label="node #300\nt_runes_cnt_30 <= 2.5\ngini = 0.0997\nsamples = 95\nvalue = [90, 5]\nclass = lose", fillcolor="#e58139f1"] ;
299 -> 300 ;
301 [label="node #301\ngini = 0.2778\nsamples = 24\nvalue = [20, 4]\nclass = lose", fillcolor="#e58139cc"] ;
300 -> 301 ;
302 [label="node #302\nt_lasthits_cnt_15 <= 12.5\ngini = 0.0278\nsamples = 71\nvalue = [70, 1]\nclass = lose", fillcolor="#e58139fb"] ;
300 -> 302 ;
303 [label="node #303\ngini = 0.0\nsamples = 51\nvalue = [51, 0]\nclass = lose", fillcolor="#e58139ff"] ;
302 -> 303 ;
304 [label="node #304\ngini = 0.095\nsamples = 20\nvalue = [19, 1]\nclass = lose", fillcolor="#e58139f2"] ;
302 -> 304 ;
305 [label="node #305\ngini = 0.3856\nsamples = 23\nvalue = [17, 6]\nclass = lose", fillcolor="#e58139a5"] ;
299 -> 305 ;
306 [label="node #306\nt_lasthits_cnt_15 <= 37.5\ngini = 0.5\nsamples = 399\nvalue = [199, 200]\nclass = win", fillcolor="#399de501"] ;
296 -> 306 ;
307 [label="node #307\ntower_damage <= 181.5\ngini = 0.4729\nsamples = 219\nvalue = [84, 135]\nclass = win", fillcolor="#399de560"] ;
306 -> 307 ;
308 [label="node #308\nstuns <= 48.8204\ngini = 0.4911\nsamples = 90\nvalue = [51, 39]\nclass = lose", fillcolor="#e581393c"] ;
307 -> 308 ;
309 [label="node #309\nt_gold_cnt_5 <= 606.0\ngini = 0.4922\nsamples = 48\nvalue = [21, 27]\nclass = win", fillcolor="#399de539"] ;
308 -> 309 ;
310 [label="node #310\ngini = 0.3457\nsamples = 27\nvalue = [6, 21]\nclass = win", fillcolor="#399de5b6"] ;
309 -> 310 ;
311 [label="node #311\ngini = 0.4082\nsamples = 21\nvalue = [15, 6]\nclass = lose", fillcolor="#e5813999"] ;
309 -> 311 ;
312 [label="node #312\nxp_per_min <= 390.5\ngini = 0.4082\nsamples = 42\nvalue = [30, 12]\nclass = lose", fillcolor="#e5813999"] ;
308 -> 312 ;
313 [label="node #313\ngini = 0.255\nsamples = 20\nvalue = [17, 3]\nclass = lose", fillcolor="#e58139d2"] ;
312 -> 313 ;
314 [label="node #314\ngini = 0.4835\nsamples = 22\nvalue = [13, 9]\nclass = lose", fillcolor="#e581394e"] ;
312 -> 314 ;
315 [label="node #315\nt_lasthits_cnt_3 <= 1.5\ngini = 0.3807\nsamples = 129\nvalue = [33, 96]\nclass = win", fillcolor="#399de5a7"] ;
307 -> 315 ;
316 [label="node #316\ndeaths <= 9.5\ngini = 0.4419\nsamples = 88\nvalue = [29, 59]\nclass = win", fillcolor="#399de582"] ;
315 -> 316 ;
317 [label="node #317\nt_gold_cnt_8 <= 1084.0\ngini = 0.3478\nsamples = 58\nvalue = [13, 45]\nclass = win", fillcolor="#399de5b5"] ;
316 -> 317 ;
318 [label="node #318\ngini = 0.0832\nsamples = 23\nvalue = [1, 22]\nclass = win", fillcolor="#399de5f3"] ;
317 -> 318 ;
319 [label="node #319\ngini = 0.4506\nsamples = 35\nvalue = [12, 23]\nclass = win", fillcolor="#399de57a"] ;
317 -> 319 ;
320 [label="node #320\ngini = 0.4978\nsamples = 30\nvalue = [16, 14]\nclass = lose", fillcolor="#e5813920"] ;
316 -> 320 ;
321 [label="node #321\nt_first_kill <= 638.0\ngini = 0.1761\nsamples = 41\nvalue = [4, 37]\nclass = win", fillcolor="#399de5e3"] ;
315 -> 321 ;
322 [label="node #322\ngini = 0.32\nsamples = 20\nvalue = [4, 16]\nclass = win", fillcolor="#399de5bf"] ;
321 -> 322 ;
323 [label="node #323\ngini = 0.0\nsamples = 21\nvalue = [0, 21]\nclass = win", fillcolor="#399de5ff"] ;
321 -> 323 ;
324 [label="node #324\nxp_per_min <= 528.5\ngini = 0.4614\nsamples = 180\nvalue = [115, 65]\nclass = lose", fillcolor="#e581396f"] ;
306 -> 324 ;
325 [label="node #325\nassists <= 19.5\ngini = 0.3967\nsamples = 132\nvalue = [96, 36]\nclass = lose", fillcolor="#e581399f"] ;
324 -> 325 ;
326 [label="node #326\nt_experience_cnt_5 <= 925.5\ngini = 0.3091\nsamples = 89\nvalue = [72, 17]\nclass = lose", fillcolor="#e58139c3"] ;
325 -> 326 ;
327 [label="node #327\ngini = 0.0\nsamples = 26\nvalue = [26, 0]\nclass = lose", fillcolor="#e58139ff"] ;
326 -> 327 ;
328 [label="node #328\nt_gold_cnt_5 <= 1200.0\ngini = 0.3941\nsamples = 63\nvalue = [46, 17]\nclass = lose", fillcolor="#e58139a1"] ;
326 -> 328 ;
329 [label="node #329\ngini = 0.4861\nsamples = 36\nvalue = [21, 15]\nclass = lose", fillcolor="#e5813949"] ;
328 -> 329 ;
330 [label="node #330\ngini = 0.1372\nsamples = 27\nvalue = [25, 2]\nclass = lose", fillcolor="#e58139eb"] ;
328 -> 330 ;
331 [label="node #331\nt_runes_cnt_25 <= 3.5\ngini = 0.4932\nsamples = 43\nvalue = [24, 19]\nclass = lose", fillcolor="#e5813935"] ;
325 -> 331 ;
332 [label="node #332\ngini = 0.42\nsamples = 20\nvalue = [6, 14]\nclass = win", fillcolor="#399de592"] ;
331 -> 332 ;
333 [label="node #333\ngini = 0.3403\nsamples = 23\nvalue = [18, 5]\nclass = lose", fillcolor="#e58139b8"] ;
331 -> 333 ;
334 [label="node #334\ndeaths <= 8.5\ngini = 0.4783\nsamples = 48\nvalue = [19, 29]\nclass = win", fillcolor="#399de558"] ;
324 -> 334 ;
335 [label="node #335\ngini = 0.3084\nsamples = 21\nvalue = [4, 17]\nclass = win", fillcolor="#399de5c3"] ;
334 -> 335 ;
336 [label="node #336\ngini = 0.4938\nsamples = 27\nvalue = [15, 12]\nclass = lose", fillcolor="#e5813933"] ;
334 -> 336 ;
{rank=same ; 0} ;
{rank=same ; 1; 114} ;
{rank=same ; 67; 124; 129; 140; 173; 176; 195; 236; 245; 251; 254; 268; 277} ;
{rank=same ; 68; 126; 130; 133; 142; 256; 270} ;
{rank=same ; 2; 29; 115; 214} ;
{rank=same ; 3; 24; 30; 51; 116; 203; 215; 296} ;
{rank=same ; 4; 11; 26; 31; 44; 52; 85; 117; 152; 204; 207; 216; 221; 297; 306} ;
{rank=same ; 5; 8; 12; 19; 32; 35; 45; 53; 62; 86; 97; 118; 153; 164; 209; 218; 222; 259; 299; 307; 324} ;
{rank=same ; 13; 21; 36; 39; 47; 54; 57; 63; 87; 98; 111; 119; 155; 165; 180; 210; 223; 226; 260; 285; 300; 308; 315; 325; 334} ;
{rank=same ; 15; 40; 58; 64; 81; 88; 99; 104; 120; 145; 156; 159; 166; 181; 192; 227; 240; 261; 274; 286; 289; 302; 309; 312; 316; 321; 326; 331} ;
{rank=same ; 65; 76; 90; 101; 105; 108; 121; 136; 146; 160; 168; 182; 187; 193; 200; 228; 233; 241; 248; 262; 265; 275; 282; 290; 293; 317; 328} ;
{rank=same ; 66; 73; 78; 91; 123; 138; 169; 172; 183; 188; 194; 229; 234; 243; 250; 266; 276} ;
{rank=same ; 6; 7; 9; 10; 14; 16; 17; 18; 20; 22; 23; 25; 27; 28; 33; 34; 37; 38; 41; 42; 43; 46; 48; 49; 50; 55; 56; 59; 60; 61; 69; 70; 71; 72; 74; 75; 77; 79; 80; 82; 83; 84; 89; 92; 93; 94; 95; 96; 100; 102; 103; 106; 107; 109; 110; 112; 113; 122; 125; 127; 128; 131; 132; 134; 135; 137; 139; 141; 143; 144; 147; 148; 149; 150; 151; 154; 157; 158; 161; 162; 163; 167; 170; 171; 174; 175; 177; 178; 179; 184; 185; 186; 189; 190; 191; 196; 197; 198; 199; 201; 202; 205; 206; 208; 211; 212; 213; 217; 219; 220; 224; 225; 230; 231; 232; 235; 237; 238; 239; 242; 244; 246; 247; 249; 252; 253; 255; 257; 258; 263; 264; 267; 269; 271; 272; 273; 278; 279; 280; 281; 283; 284; 287; 288; 291; 292; 294; 295; 298; 301; 303; 304; 305; 310; 311; 313; 314; 318; 319; 320; 322; 323; 327; 329; 330; 332; 333; 335; 336} ;
}