digraph Tree {
node [shape=box, style="filled, rounded", color="black", fontname=helvetica] ;
graph [ranksep=equally, splines=polyline] ;
edge [fontname=helvetica] ;
0 [label="node #0\ndeaths <= 3.5\ngini = 0.4746\nsamples = 100.0%\nvalue = [0.39, 0.61]", fillcolor="#399de55e"] ;
1 [label="node #1\nassists <= 3.5\ngini = 0.253\nsamples = 54.4%\nvalue = [0.15, 0.85]", fillcolor="#399de5d3"] ;
0 -> 1 [labeldistance=2.5, labelangle=45, headlabel="True"] ;
2 [label="node #2\ngold_per_min <= 540.5\ngini = 0.3807\nsamples = 6.7%\nvalue = [0.74, 0.26]", fillcolor="#e58139a7"] ;
1 -> 2 ;
3 [label="node #3\ndeaths <= 0.5\ngini = 0.1207\nsamples = 4.8%\nvalue = [0.94, 0.06]", fillcolor="#e58139ed"] ;
2 -> 3 ;
4 [label="node #4\ngini = 0.0\nsamples = 0.2%\nvalue = [0.0, 1.0]", fillcolor="#399de5ff"] ;
3 -> 4 ;
5 [label="node #5\nkills <= 5.0\ngini = 0.0644\nsamples = 4.7%\nvalue = [0.97, 0.03]", fillcolor="#e58139f6"] ;
3 -> 5 ;
6 [label="node #6\ngini = 0.0\nsamples = 4.0%\nvalue = [1.0, 0.0]", fillcolor="#e58139ff"] ;
5 -> 6 ;
7 [label="node #7\ndeaths <= 2.5\ngini = 0.375\nsamples = 0.6%\nvalue = [0.75, 0.25]", fillcolor="#e58139aa"] ;
5 -> 7 ;
8 [label="node #8\ngini = 0.0\nsamples = 0.2%\nvalue = [0.0, 1.0]", fillcolor="#399de5ff"] ;
7 -> 8 ;
9 [label="node #9\ngini = 0.0\nsamples = 0.5%\nvalue = [1.0, 0.0]", fillcolor="#e58139ff"] ;
7 -> 9 ;
10 [label="node #10\nlast_hits <= 251.0\ngini = 0.375\nsamples = 1.9%\nvalue = [0.25, 0.75]", fillcolor="#399de5aa"] ;
2 -> 10 ;
11 [label="node #11\ngini = 0.0\nsamples = 1.4%\nvalue = [0.0, 1.0]", fillcolor="#399de5ff"] ;
10 -> 11 ;
12 [label="node #12\ngini = 0.0\nsamples = 0.5%\nvalue = [1.0, 0.0]", fillcolor="#e58139ff"] ;
10 -> 12 ;
13 [label="node #13\nassists <= 6.5\ngini = 0.1218\nsamples = 47.7%\nvalue = [0.07, 0.93]", fillcolor="#399de5ed"] ;
1 -> 13 ;
14 [label="node #14\ngold_per_min <= 505.0\ngini = 0.3133\nsamples = 11.2%\nvalue = [0.19, 0.81]", fillcolor="#399de5c1"] ;
13 -> 14 ;
15 [label="node #15\nlast_hits <= 164.5\ngini = 0.4898\nsamples = 2.2%\nvalue = [0.57, 0.43]", fillcolor="#e5813940"] ;
14 -> 15 ;
16 [label="node #16\nxp_per_min <= 411.5\ngini = 0.375\nsamples = 1.2%\nvalue = [0.25, 0.75]", fillcolor="#399de5aa"] ;
15 -> 16 ;
17 [label="node #17\ngini = 0.0\nsamples = 0.3%\nvalue = [1.0, 0.0]", fillcolor="#e58139ff"] ;
16 -> 17 ;
18 [label="node #18\ngini = 0.0\nsamples = 0.9%\nvalue = [0.0, 1.0]", fillcolor="#399de5ff"] ;
16 -> 18 ;
19 [label="node #19\ngini = 0.0\nsamples = 0.9%\nvalue = [1.0, 0.0]", fillcolor="#e58139ff"] ;
15 -> 19 ;
20 [label="node #20\ngold_spent <= 17110.0\ngini = 0.1855\nsamples = 9.0%\nvalue = [0.1, 0.9]", fillcolor="#399de5e2"] ;
14 -> 20 ;
21 [label="node #21\ngini = 0.0\nsamples = 6.2%\nvalue = [0.0, 1.0]", fillcolor="#399de5ff"] ;
20 -> 21 ;
22 [label="node #22\ngold_per_min <= 605.5\ngini = 0.4444\nsamples = 2.8%\nvalue = [0.33, 0.67]", fillcolor="#399de57f"] ;
20 -> 22 ;
23 [label="node #23\ngold_per_min <= 572.5\ngini = 0.4444\nsamples = 1.4%\nvalue = [0.67, 0.33]", fillcolor="#e581397f"] ;
22 -> 23 ;
24 [label="node #24\ngini = 0.0\nsamples = 0.3%\nvalue = [0.0, 1.0]", fillcolor="#399de5ff"] ;
23 -> 24 ;
25 [label="node #25\ngini = 0.2449\nsamples = 1.1%\nvalue = [0.86, 0.14]", fillcolor="#e58139d4"] ;
23 -> 25 ;
26 [label="node #26\ngini = 0.0\nsamples = 1.4%\nvalue = [0.0, 1.0]", fillcolor="#399de5ff"] ;
22 -> 26 ;
27 [label="node #27\ngold_per_min <= 504.5\ngini = 0.0498\nsamples = 36.5%\nvalue = [0.03, 0.97]", fillcolor="#399de5f8"] ;
13 -> 27 ;
28 [label="node #28\nlast_hits <= 299.5\ngini = 0.1709\nsamples = 8.2%\nvalue = [0.09, 0.91]", fillcolor="#399de5e4"] ;
27 -> 28 ;
29 [label="node #29\nxp_per_min <= 698.0\ngini = 0.0768\nsamples = 7.8%\nvalue = [0.04, 0.96]", fillcolor="#399de5f4"] ;
28 -> 29 ;
30 [label="node #30\nassists <= 7.5\ngini = 0.04\nsamples = 7.6%\nvalue = [0.02, 0.98]", fillcolor="#399de5fa"] ;
29 -> 30 ;
31 [label="node #31\ngini = 0.2778\nsamples = 0.9%\nvalue = [0.17, 0.83]", fillcolor="#399de5cc"] ;
30 -> 31 ;
32 [label="node #32\ngini = 0.0\nsamples = 6.7%\nvalue = [0.0, 1.0]", fillcolor="#399de5ff"] ;
30 -> 32 ;
33 [label="node #33\ngini = 0.0\nsamples = 0.2%\nvalue = [1.0, 0.0]", fillcolor="#e58139ff"] ;
29 -> 33 ;
34 [label="node #34\ngini = 0.0\nsamples = 0.5%\nvalue = [1.0, 0.0]", fillcolor="#e58139ff"] ;
28 -> 34 ;
35 [label="node #35\nhero_healing <= 823.5\ngini = 0.0109\nsamples = 28.3%\nvalue = [0.01, 0.99]", fillcolor="#399de5fe"] ;
27 -> 35 ;
36 [label="node #36\ngini = 0.0\nsamples = 26.6%\nvalue = [0.0, 1.0]", fillcolor="#399de5ff"] ;
35 -> 36 ;
37 [label="node #37\nlast_hits <= 380.0\ngini = 0.1653\nsamples = 1.7%\nvalue = [0.09, 0.91]", fillcolor="#399de5e6"] ;
35 -> 37 ;
38 [label="node #38\ngini = 0.0\nsamples = 1.6%\nvalue = [0.0, 1.0]", fillcolor="#399de5ff"] ;
37 -> 38 ;
39 [label="node #39\ngini = 0.0\nsamples = 0.2%\nvalue = [1.0, 0.0]", fillcolor="#e58139ff"] ;
37 -> 39 ;
40 [label="node #40\nassists <= 9.5\ngini = 0.4406\nsamples = 45.6%\nvalue = [0.67, 0.33]", fillcolor="#e5813983"] ;
0 -> 40 [labeldistance=2.5, labelangle=-45, headlabel="False"] ;
41 [label="node #41\nkills <= 11.5\ngini = 0.182\nsamples = 24.6%\nvalue = [0.9, 0.1]", fillcolor="#e58139e2"] ;
40 -> 41 ;
42 [label="node #42\nxp_per_min <= 600.0\ngini = 0.1244\nsamples = 23.3%\nvalue = [0.93, 0.07]", fillcolor="#e58139ed"] ;
41 -> 42 ;
43 [label="node #43\ndenies <= 9.5\ngini = 0.0694\nsamples = 21.6%\nvalue = [0.96, 0.04]", fillcolor="#e58139f5"] ;
42 -> 43 ;
44 [label="node #44\ngold_per_min <= 455.5\ngini = 0.1551\nsamples = 9.2%\nvalue = [0.92, 0.08]", fillcolor="#e58139e7"] ;
43 -> 44 ;
45 [label="node #45\nxp_per_min <= 339.5\ngini = 0.0425\nsamples = 7.2%\nvalue = [0.98, 0.02]", fillcolor="#e58139f9"] ;
44 -> 45 ;
46 [label="node #46\ngini = 0.1653\nsamples = 1.7%\nvalue = [0.91, 0.09]", fillcolor="#e58139e6"] ;
45 -> 46 ;
47 [label="node #47\ngini = 0.0\nsamples = 5.4%\nvalue = [1.0, 0.0]", fillcolor="#e58139ff"] ;
45 -> 47 ;
48 [label="node #48\nlast_hits <= 218.0\ngini = 0.426\nsamples = 2.0%\nvalue = [0.69, 0.31]", fillcolor="#e581398e"] ;
44 -> 48 ;
49 [label="node #49\ngini = 0.32\nsamples = 0.8%\nvalue = [0.2, 0.8]", fillcolor="#399de5bf"] ;
48 -> 49 ;
50 [label="node #50\ngini = 0.0\nsamples = 1.2%\nvalue = [1.0, 0.0]", fillcolor="#e58139ff"] ;
48 -> 50 ;
51 [label="node #51\ngini = 0.0\nsamples = 12.4%\nvalue = [1.0, 0.0]", fillcolor="#e58139ff"] ;
43 -> 51 ;
52 [label="node #52\nlast_hits <= 332.5\ngini = 0.4959\nsamples = 1.7%\nvalue = [0.55, 0.45]", fillcolor="#e581392a"] ;
42 -> 52 ;
53 [label="node #53\nlevel <= 24.0\ngini = 0.2778\nsamples = 0.9%\nvalue = [0.17, 0.83]", fillcolor="#399de5cc"] ;
52 -> 53 ;
54 [label="node #54\ngini = 0.0\nsamples = 0.6%\nvalue = [0.0, 1.0]", fillcolor="#399de5ff"] ;
53 -> 54 ;
55 [label="node #55\ndeaths <= 7.5\ngini = 0.5\nsamples = 0.3%\nvalue = [0.5, 0.5]", fillcolor="#e5813900"] ;
53 -> 55 ;
56 [label="node #56\ngini = 0.0\nsamples = 0.2%\nvalue = [1.0, 0.0]", fillcolor="#e58139ff"] ;
55 -> 56 ;
57 [label="node #57\ngini = 0.0\nsamples = 0.2%\nvalue = [0.0, 1.0]", fillcolor="#399de5ff"] ;
55 -> 57 ;
58 [label="node #58\ngini = 0.0\nsamples = 0.8%\nvalue = [1.0, 0.0]", fillcolor="#e58139ff"] ;
52 -> 58 ;
59 [label="node #59\ngold_per_min <= 542.0\ngini = 0.375\nsamples = 1.2%\nvalue = [0.25, 0.75]", fillcolor="#399de5aa"] ;
41 -> 59 ;
60 [label="node #60\ngini = 0.0\nsamples = 0.2%\nvalue = [1.0, 0.0]", fillcolor="#e58139ff"] ;
59 -> 60 ;
61 [label="node #61\ndenies <= 22.5\ngini = 0.2449\nsamples = 1.1%\nvalue = [0.14, 0.86]", fillcolor="#399de5d4"] ;
59 -> 61 ;
62 [label="node #62\ngini = 0.0\nsamples = 0.9%\nvalue = [0.0, 1.0]", fillcolor="#399de5ff"] ;
61 -> 62 ;
63 [label="node #63\ngini = 0.0\nsamples = 0.2%\nvalue = [1.0, 0.0]", fillcolor="#e58139ff"] ;
61 -> 63 ;
64 [label="node #64\nxp_per_min <= 460.0\ngini = 0.4829\nsamples = 21.0%\nvalue = [0.41, 0.59]", fillcolor="#399de550"] ;
40 -> 64 ;
65 [label="node #65\nstuns <= 53.6736\ngini = 0.3367\nsamples = 4.4%\nvalue = [0.79, 0.21]", fillcolor="#e58139b9"] ;
64 -> 65 ;
66 [label="node #66\ngold_per_min <= 647.5\ngini = 0.2112\nsamples = 3.9%\nvalue = [0.88, 0.12]", fillcolor="#e58139dc"] ;
65 -> 66 ;
67 [label="node #67\nxp_per_min <= 326.5\ngini = 0.1528\nsamples = 3.7%\nvalue = [0.92, 0.08]", fillcolor="#e58139e8"] ;
66 -> 67 ;
68 [label="node #68\nxp_per_min <= 165.5\ngini = 0.5\nsamples = 0.6%\nvalue = [0.5, 0.5]", fillcolor="#e5813900"] ;
67 -> 68 ;
69 [label="node #69\ngini = 0.0\nsamples = 0.3%\nvalue = [1.0, 0.0]", fillcolor="#e58139ff"] ;
68 -> 69 ;
70 [label="node #70\ngini = 0.0\nsamples = 0.3%\nvalue = [0.0, 1.0]", fillcolor="#399de5ff"] ;
68 -> 70 ;
71 [label="node #71\ngini = 0.0\nsamples = 3.1%\nvalue = [1.0, 0.0]", fillcolor="#e58139ff"] ;
67 -> 71 ;
72 [label="node #72\ngini = 0.0\nsamples = 0.2%\nvalue = [0.0, 1.0]", fillcolor="#399de5ff"] ;
66 -> 72 ;
73 [label="node #73\ngini = 0.0\nsamples = 0.5%\nvalue = [0.0, 1.0]", fillcolor="#399de5ff"] ;
65 -> 73 ;
74 [label="node #74\nlast_hits <= 224.0\ngini = 0.4266\nsamples = 16.6%\nvalue = [0.31, 0.69]", fillcolor="#399de58d"] ;
64 -> 74 ;
75 [label="node #75\ngold_per_min <= 400.5\ngini = 0.1528\nsamples = 5.6%\nvalue = [0.08, 0.92]", fillcolor="#399de5e8"] ;
74 -> 75 ;
76 [label="node #76\nlevel <= 18.5\ngini = 0.4444\nsamples = 0.5%\nvalue = [0.67, 0.33]", fillcolor="#e581397f"] ;
75 -> 76 ;
77 [label="node #77\ngini = 0.0\nsamples = 0.2%\nvalue = [0.0, 1.0]", fillcolor="#399de5ff"] ;
76 -> 77 ;
78 [label="node #78\ngini = 0.0\nsamples = 0.3%\nvalue = [1.0, 0.0]", fillcolor="#e58139ff"] ;
76 -> 78 ;
79 [label="node #79\nhero_healing <= 826.5\ngini = 0.0588\nsamples = 5.1%\nvalue = [0.03, 0.97]", fillcolor="#399de5f7"] ;
75 -> 79 ;
80 [label="node #80\ngini = 0.0\nsamples = 5.0%\nvalue = [0.0, 1.0]", fillcolor="#399de5ff"] ;
79 -> 80 ;
81 [label="node #81\ngini = 0.0\nsamples = 0.2%\nvalue = [1.0, 0.0]", fillcolor="#e58139ff"] ;
79 -> 81 ;
82 [label="node #82\ngold_per_min <= 527.0\ngini = 0.488\nsamples = 11.0%\nvalue = [0.42, 0.58]", fillcolor="#399de544"] ;
74 -> 82 ;
83 [label="node #83\nassists <= 17.5\ngini = 0.3995\nsamples = 4.5%\nvalue = [0.72, 0.28]", fillcolor="#e581399e"] ;
82 -> 83 ;
84 [label="node #84\ndeaths <= 4.5\ngini = 0.2778\nsamples = 3.7%\nvalue = [0.83, 0.17]", fillcolor="#e58139cc"] ;
83 -> 84 ;
85 [label="node #85\ngini = 0.4444\nsamples = 0.5%\nvalue = [0.33, 0.67]", fillcolor="#399de57f"] ;
84 -> 85 ;
86 [label="node #86\ngini = 0.1723\nsamples = 3.3%\nvalue = [0.9, 0.1]", fillcolor="#e58139e4"] ;
84 -> 86 ;
87 [label="node #87\ngold_per_min <= 461.0\ngini = 0.32\nsamples = 0.8%\nvalue = [0.2, 0.8]", fillcolor="#399de5bf"] ;
83 -> 87 ;
88 [label="node #88\ngini = 0.0\nsamples = 0.2%\nvalue = [1.0, 0.0]", fillcolor="#e58139ff"] ;
87 -> 88 ;
89 [label="node #89\ngini = 0.0\nsamples = 0.6%\nvalue = [0.0, 1.0]", fillcolor="#399de5ff"] ;
87 -> 89 ;
90 [label="node #90\ntower_damage <= 3351.0\ngini = 0.3367\nsamples = 6.5%\nvalue = [0.21, 0.79]", fillcolor="#399de5b9"] ;
82 -> 90 ;
91 [label="node #91\nlast_hits <= 291.0\ngini = 0.4281\nsamples = 4.5%\nvalue = [0.31, 0.69]", fillcolor="#399de58c"] ;
90 -> 91 ;
92 [label="node #92\ngini = 0.0\nsamples = 1.4%\nvalue = [0.0, 1.0]", fillcolor="#399de5ff"] ;
91 -> 92 ;
93 [label="node #93\ngini = 0.495\nsamples = 3.1%\nvalue = [0.45, 0.55]", fillcolor="#399de52e"] ;
91 -> 93 ;
94 [label="node #94\ngini = 0.0\nsamples = 2.0%\nvalue = [0.0, 1.0]", fillcolor="#399de5ff"] ;
90 -> 94 ;
{rank=same ; 0} ;
{rank=same ; 1; 40} ;
{rank=same ; 2; 13; 41; 64} ;
{rank=same ; 3; 10; 14; 27; 42; 59; 65; 74} ;
{rank=same ; 5; 15; 20; 28; 35; 43; 52; 61; 66; 75; 82} ;
{rank=same ; 7; 16; 22; 29; 37; 44; 53; 67; 76; 79; 83; 90} ;
{rank=same ; 23; 30; 45; 48; 55; 68; 84; 87; 91} ;
{rank=same ; 4; 6; 8; 9; 11; 12; 17; 18; 19; 21; 24; 25; 26; 31; 32; 33; 34; 36; 38; 39; 46; 47; 49; 50; 51; 54; 56; 57; 58; 60; 62; 63; 69; 70; 71; 72; 73; 77; 78; 80; 81; 85; 86; 88; 89; 92; 93; 94} ;
}